
\data\
ngram 1=5
ngram 2=11
ngram 3=2

\1-grams:
-0.6766936	</s>
-99	<s>	-0.1983676
-0.4336556	wa	0.07463366
-0.5006024	wb	7.078244
-0.9777236	wc	-0.1014576

\2-grams:
-0.2218488	<s> wa	-0.1760913
-0.69897	<s> wb
-0.60206	wa </s>
-0.90309	wa wa
-0.30103	wa wb
-0.845098	wb </s>
-0.544068	wb wa	-0.3521825
-0.845098	wb wb
-0.544068	wb wc
-0.4771213	wc </s>
-0.4771213	wc wa

\3-grams:
-0.1760913	<s> wa wb
-0.1760913	wb wa </s>

\end\
