
\data\
ngram 1=5
ngram 2=11
ngram 3=2

\1-grams:
-0.6766936	</s>
-99	<s>	-0.1983676
-0.4336556	a	0.07463366
-0.5006024	b	7.078244
-0.9777236	c	-0.1014576

\2-grams:
-0.2218488	<s> a	-0.1760913
-0.69897	<s> b
-0.60206	a </s>
-0.90309	a a
-0.30103	a b
-0.845098	b </s>
-0.544068	b a	-0.3521825
-0.845098	b b
-0.544068	b c
-0.4771213	c </s>
-0.4771213	c a

\3-grams:
-0.1760913	<s> a b
-0.1760913	b a </s>

\end\
